nep4 3 K Li Ge 
cutoff 8 4 79 13
n_max 4 4
basis_size 8 8
l_max 4 2 0
ANN 30 0
  3.6601139e-07
 -3.5395066e-04
 -1.3761554e-04
  1.4283022e-04
  1.9313713e-05
  1.7795758e-04
  9.4868628e-05
 -5.9861191e-05
 -5.6091212e-05
  7.4478528e-05
  4.3506956e-05
  1.2177992e-04
 -2.0226273e-04
  1.1146031e-04
 -4.5043943e-04
  3.4791046e-05
  4.9148298e-06
  1.1823253e-04
  1.9919327e-05
 -5.2752031e-04
  2.9067442e-04
 -1.2163099e-04
 -8.3734112e-06
  1.0119434e-04
  3.2334519e-04
  2.4512570e-04
  1.6891770e-04
 -2.9707591e-05
  1.5013192e-04
  8.3917633e-02
 -2.5496960e-05
 -1.2213885e-04
 -2.2029635e-05
 -2.8445927e-04
 -2.2940736e-04
  4.7968344e-05
  1.5955113e-05
  2.3630259e-05
 -1.7709461e-04
  1.9513482e-04
 -1.1483218e-04
  6.6882763e-05
  1.0753254e-04
  9.0376248e-05
 -8.4380379e-05
 -1.1692732e-04
  3.2199812e-04
 -5.5094401e-06
  9.5872259e-05
 -3.6403406e-04
 -2.1486274e-04
  2.3737238e-04
 -3.1653630e-07
 -9.1543625e-05
 -3.0841016e-05
  3.6270423e-05
  5.6509904e-05
  2.6654412e-05
  9.8074117e-05
  6.0105644e-06
  5.8166039e-05
  6.5286367e-05
 -1.5034556e-04
  2.0411471e-05
  3.2489617e-05
  5.0876853e-05
  2.0871332e-04
 -3.4951670e-05
  5.9413671e-04
  5.0418970e-05
  3.4127271e-04
  7.2439216e-05
  1.2642483e-04
  9.8574262e-08
  3.6166908e-05
  3.0713934e-05
 -2.5361910e-04
 -1.5722975e-04
 -1.4034263e-04
  1.8290693e-05
  2.0118585e-04
  5.7907877e-05
  2.0458438e-05
  2.2813572e-04
  8.4373562e-05
  1.5092907e-04
 -5.3734007e-06
 -1.3861801e-04
 -6.5095752e-05
  6.4978824e-04
  7.5184311e-05
  6.6922199e-05
  2.1448912e-04
 -7.0532724e-06
  7.6928052e-05
 -4.5206534e-06
 -6.5177832e-05
  5.7700474e-04
 -2.7848117e-04
  7.2654743e-06
  6.3543458e-04
 -2.8162787e-04
 -2.5158381e-04
 -1.6641765e-04
 -2.6311140e-05
 -1.3321925e-04
 -1.9073844e-04
  1.5804217e-05
  1.1915218e-04
 -6.6267166e-05
 -4.6599878e-05
  2.4745398e-04
  6.1337312e-05
 -1.3417119e-04
  5.7515441e-05
 -9.5444004e-05
 -1.7671636e-04
  8.0736449e-05
  5.5955989e-06
  3.2446689e-05
  2.9422666e-04
  3.9397439e-04
 -1.9506941e-05
 -1.6315904e-04
 -3.4106848e-05
 -5.7749454e-05
 -3.4323661e-05
 -2.5464258e-05
 -1.5944632e-04
 -1.7311302e-04
 -1.4861122e-04
 -1.6263525e-04
 -1.6758463e-04
 -2.4826665e-04
 -7.4103089e-05
  5.9419039e-05
  2.6550677e-05
 -1.2012650e-04
 -2.4966748e-05
 -2.2199743e-04
 -9.7491102e-05
  3.9796793e-04
 -1.8630968e-04
 -3.7825236e-04
 -3.0545756e-04
 -7.0314600e-05
 -1.2939954e-05
 -5.0100866e-06
  7.0405531e-06
  1.3403613e-05
  7.7605031e-02
  4.7370736e-06
  1.0180843e-04
  1.6099932e-05
 -6.5080385e-05
 -2.2132209e-04
 -3.4788446e-04
 -7.4605254e-05
  9.0171212e-05
  3.9404877e-05
 -6.3191423e-05
 -1.1508330e-03
  1.3600125e-04
 -9.9328565e-05
 -8.7852750e-05
 -4.1028179e-04
 -2.2331516e-04
 -2.2572081e-04
  7.9100493e-05
 -1.3908526e-04
 -8.2699939e-05
 -7.5907848e-04
  1.9552898e-04
  5.9673403e-05
 -4.4943240e-06
  4.7433790e-05
 -5.7072629e-04
 -3.3051809e-04
 -9.8266813e-05
  3.2807610e-04
 -4.3692766e-05
  3.0533593e-02
  1.3792176e-05
 -6.3671789e-05
 -3.8869293e-05
  3.2540134e-04
  9.2462105e-05
 -7.3066600e-05
 -2.1423437e-04
  9.7866570e-05
 -9.2768969e-05
  4.6973611e-05
  5.9708495e-05
 -2.3551563e-04
  5.1063660e-05
  3.7422063e-04
 -2.0564787e-05
  1.5165500e-04
  6.1208069e-05
 -1.7509825e-04
 -2.2888572e-04
  5.1673787e-06
  1.1464573e-04
  1.4612691e-04
 -5.0509566e-06
 -4.3771730e-04
  2.4433143e-04
 -1.2044504e-04
 -4.4941582e-05
 -1.4226082e-04
 -3.3202682e-06
  6.7679374e-04
 -5.5955577e-04
 -5.0778258e-06
  8.4450745e-05
 -9.5388699e-05
 -8.3698280e-05
  1.9555858e-04
 -5.1845163e-05
 -6.6270521e-05
 -2.1026814e-05
  1.4609190e-04
  3.2946072e-04
  2.3926985e-05
  2.6590581e-04
  6.2937384e-06
 -9.5791802e-05
  1.7587413e-04
  2.9889879e-05
 -2.0561169e-05
  3.8027801e-04
  1.2396368e-04
  1.0861275e-04
  2.8013662e-04
  5.9005636e-04
  1.3598091e-04
 -1.1361692e-04
  5.9163047e-04
 -4.3532469e-05
 -3.8787872e-05
 -4.0257198e-01
  6.1987005e-02
  1.0898008e-01
  4.1981730e-01
 -1.4341044e-01
  1.6251653e-04
  8.4631267e-04
 -2.2177189e-04
 -5.2217644e-04
 -1.7303300e-01
 -1.2552308e-05
 -8.4838324e-04
 -5.3114105e-02
 -3.1619688e-04
 -2.3017937e-01
  1.1382211e-04
  3.5694269e-05
 -3.8558774e-02
  1.0900922e-04
 -1.7533710e-02
  2.3240407e-04
  4.5651835e-04
 -1.8753677e-03
 -4.7149289e-05
 -5.1626601e-05
 -8.3718063e-05
 -4.3586233e-06
  1.1553408e-05
 -6.4259322e-05
 -8.1471569e-04
 -8.0760173e-02
  6.9457856e-05
 -1.4630619e-03
 -2.9364752e-05
  2.4688567e-04
  9.0206529e-05
 -8.3979030e-05
  8.7591317e-05
 -2.7252932e-05
  2.8772951e-05
 -2.3114521e-04
  8.8379813e-05
 -2.9188272e-04
  2.3306931e-04
  6.9073820e-04
 -1.5470351e-04
 -3.0821957e-05
  2.9155563e-05
 -1.5270259e-04
 -3.1945081e-05
  2.2115362e-04
 -7.1478589e-06
 -1.8638841e-05
  4.0815448e-05
 -5.3675194e-05
 -3.2130783e-04
 -7.9415418e-04
 -1.2821928e-04
 -7.3232375e-05
  1.0155437e-04
 -1.3598864e-04
 -1.3980796e-04
  9.6344644e-05
  1.1859716e-02
  2.0143007e-05
  1.8162158e-06
 -2.0305379e-04
  1.1756650e-05
 -1.3515323e-04
  9.0821108e-05
  7.0138095e-04
 -3.0101046e-05
 -6.0867085e-05
  2.8457263e-05
  2.6819174e-04
 -9.9292571e-05
 -1.2718121e-04
 -5.8070029e-05
  1.5750855e-04
 -1.2661556e-04
 -2.4574462e-04
  3.1006971e-04
 -1.3473042e-04
  2.8740897e-04
  1.4731656e-04
  2.6550635e-05
  1.2540451e-04
 -5.6563476e-06
 -5.6593365e-04
 -1.0368544e-04
  4.1164843e-05
 -3.9740324e-05
 -4.9696417e-05
  4.9711645e-05
  2.2784848e-04
 -4.5593879e-05
  6.5693712e-05
 -2.0448065e-04
  2.1267716e-04
  2.3257390e-04
 -2.1095098e-05
 -1.1788978e-06
 -2.3381760e-04
  2.6604570e-05
 -2.2771623e-04
  1.5363939e-05
  3.4630706e-05
 -1.4136756e-04
 -9.4708948e-06
 -2.1229380e-04
 -4.2163494e-05
 -8.0808466e-05
 -6.5183383e-05
  2.4474650e-05
 -8.3399020e-05
  4.3966164e-05
  6.3783496e-05
 -4.3699279e-04
 -1.0858895e-04
 -1.9684620e-04
  1.5569199e-04
 -1.9126481e-04
  6.9716385e-05
 -4.7653401e-05
  6.5118962e-05
  8.7519174e-06
  4.0473209e-05
 -1.3031170e-06
  8.2105870e-04
  2.3605430e-04
 -1.8731007e-05
  2.2123300e-04
 -7.0406284e-05
  7.0518807e-05
 -4.4517357e-05
  5.7205831e-04
 -3.0288094e-05
  3.0455219e-03
  6.1572341e-06
  4.3281630e-06
 -1.5148440e-04
  2.2981372e-05
  2.4005654e-04
 -1.2563998e-04
 -1.8195332e-04
  1.9380920e-04
  1.9761389e-01
 -4.0451647e-04
  7.5377109e-05
 -1.8631280e-04
  8.5466585e-05
 -7.7065102e-05
 -1.7499647e-04
  1.1654949e-04
 -2.1614713e-05
 -4.6002347e-04
  2.9393975e-04
  5.0702380e-05
  1.6253414e-04
 -1.6298414e-05
 -1.1170386e-04
 -1.0858571e-05
  3.1851796e-06
 -6.8969541e-07
 -2.6458094e-04
 -6.6052721e-04
  1.8938218e-04
 -1.0480334e-05
 -1.2725302e-05
  2.7733466e-05
  7.5610042e-05
  1.1142043e-04
 -2.1898964e-05
  4.9672335e-06
  1.3133792e-06
 -2.6769219e-05
  4.1434856e-04
 -1.6800551e-04
  3.6211477e-05
  3.1399025e-04
 -3.2244977e-01
 -6.0777094e-02
  4.6507795e-03
  9.0346374e-02
 -5.4060094e-02
 -1.1891236e-04
 -1.1664575e-04
 -1.8637347e-04
 -1.1803676e-04
 -1.8997522e-03
 -3.2177337e-05
  2.4501793e-01
 -1.1282421e-04
  1.3245837e-04
 -2.6412709e-02
 -1.0325518e-04
  1.2921925e-04
  5.8718771e-04
 -1.5210686e-05
  1.9376712e-05
 -4.2379324e-05
  2.8204499e-04
 -2.1546376e-04
  7.7437260e-05
  1.8755572e-04
  4.5681221e-04
  2.1479551e-04
  2.8917068e-04
  3.0400228e-05
 -8.0984046e-06
  2.0829354e-01
  1.0586100e-03
 -2.6156464e-01
  1.2857829e-01
  2.3779155e-04
  4.2848263e-04
  1.0270793e-05
 -7.7584700e-05
 -8.3864143e-05
  4.2410457e-04
 -2.1006606e-05
 -6.8238835e-05
  1.3460084e-04
 -1.4553050e-04
 -9.8127593e-06
 -1.3613303e-03
  1.8046140e-04
 -3.2771711e-04
 -1.6012999e-04
  3.1275798e-05
 -1.7075372e-04
 -2.1926064e-05
  5.2967898e-05
  1.3234688e-05
 -7.8799048e-06
 -1.5739232e-04
  3.5727539e-04
 -4.4492845e-04
 -3.8470924e-04
 -2.2445871e-04
 -4.1384205e-02
 -1.9614404e-04
 -2.5535359e-03
 -1.9875593e-03
  9.4343023e-04
 -3.5383835e-04
  7.1827330e-05
 -5.5832956e-05
 -5.2921911e-05
  6.1687035e-04
 -1.6423987e-04
 -4.5299370e-05
  4.5649584e-05
 -2.3248844e-05
 -1.7627688e-05
  2.4305923e-06
  6.6365633e-06
 -1.1352360e-04
  4.5164725e-05
  4.5534118e-05
 -2.5999732e-04
 -3.3843142e-04
 -2.7663200e-05
  8.4897831e-05
 -3.5053829e-04
 -1.8572231e-04
  4.6696536e-05
  3.9696030e-04
 -6.2524174e-05
  2.6951000e-04
 -2.6467897e-04
  1.6817599e-04
 -1.4865736e-02
  3.3666234e-02
  1.8958529e-04
 -2.6228532e-04
  4.0009475e-04
 -1.3764504e-04
 -5.3188687e-05
  2.1633459e-04
 -5.1260457e-05
 -2.8612703e-04
 -1.2057903e-04
 -9.2094234e-04
  7.3365784e-01
 -1.7224916e-04
 -2.6920871e-04
  2.7109829e-05
 -1.2255009e-04
 -4.7838016e-04
  1.4959423e-04
 -9.6701559e-05
  5.0251512e-04
  4.4254703e-05
 -6.5317159e-05
  1.6987910e-04
  5.2669577e-05
 -1.0752551e-03
  4.9769500e-07
 -1.9678059e-04
 -1.3545623e-01
  3.0916864e-01
 -3.5824358e-01
  3.4998294e-02
 -3.9695051e-01
  1.1154386e-04
  6.6183391e-05
 -1.7682585e-04
  6.9746189e-04
 -1.7362407e-01
 -1.3136603e-05
  4.8907867e-05
 -8.6294912e-04
  6.7605697e-06
 -1.7081757e-01
  1.6880890e-04
 -8.5280961e-05
 -3.6615462e-04
  1.0589050e-01
 -1.1564674e-03
 -2.2395046e-05
 -2.7434633e-04
 -3.0651988e-04
  4.0145515e-04
 -1.8595731e-05
 -2.8952994e-04
 -4.6236339e-05
 -2.1882092e-04
 -8.4849300e-05
  9.8303768e-05
  1.7321494e-01
 -1.1100928e-01
 -7.2316557e-01
  2.4769124e-01
  7.0699073e-02
 -2.0496511e-04
  4.5490713e-05
 -8.4170424e-05
  4.4303841e-05
  4.6562687e-03
 -1.0705973e-04
 -9.0693920e-06
  1.8466983e-04
 -1.5392825e-04
  3.3907767e-02
 -2.1769745e-05
  1.0452522e-04
  8.2578900e-04
  1.2243722e-04
  1.2759045e-03
  1.1035952e-05
  1.5662186e-04
  1.5228862e-04
  4.7554271e-04
 -1.7847905e-04
 -9.8630102e-05
  1.3083855e-04
  6.1373896e-05
 -2.2395038e-04
 -3.7286904e-05
 -1.5766382e-01
 -9.5612353e-01
  5.7940280e-01
 -1.8280624e-01
  4.5368481e-01
  2.4900433e-05
  7.5046424e-05
 -3.3280117e-05
 -1.1418162e-04
  1.0374543e-01
  3.4371307e-05
 -1.4793267e-04
  2.7998089e-04
 -6.0083297e-05
  1.9382301e-01
 -4.0632593e-05
  4.5956011e-05
  4.6668242e-04
  1.4469163e-04
 -1.3204530e-04
 -1.8119182e-04
 -3.6626006e-04
 -7.7699424e-06
  1.1125213e-04
  6.7063891e-05
  1.9977654e-04
 -8.8920535e-07
  4.6614972e-05
 -4.7248154e-06
 -8.8378722e-05
 -2.5761944e-01
 -5.4029852e-01
 -7.4493866e-05
 -3.5771504e-01
 -9.7721953e-05
 -1.4003651e-04
  1.1679739e-05
 -7.3028285e-05
  8.9088222e-05
 -4.3981810e-05
  1.3588899e-04
 -6.0757998e-06
 -4.2863906e-04
 -2.4122506e-04
 -1.1030051e-03
 -5.1628322e-05
  4.2143387e-05
 -7.6163118e-04
  4.2495306e-04
  4.9089020e-05
 -4.4290315e-05
  4.8249644e-06
  2.9753341e-05
  1.4959559e-04
  5.6602381e-05
 -7.3466772e-06
 -3.6227051e-05
  1.8808816e-04
  2.4054953e-05
 -3.2311009e-04
  8.7985572e-05
  2.9519317e-04
  1.8258840e-04
 -1.8195262e-04
  1.0129401e-05
  2.5102054e-05
 -1.8664718e-05
  5.0103321e-05
 -8.7672479e-06
 -7.7221113e-05
  3.6248668e-05
 -1.8801392e-04
  1.6475242e-05
  1.0323009e-04
 -2.3560513e-05
 -1.3752627e-04
  2.8220675e-05
 -1.7317070e-04
  3.7189184e-05
  5.1569659e-04
 -7.7680255e-05
 -5.2348827e-05
 -1.9993277e-05
 -1.7739621e-04
 -3.0046041e-04
 -4.8537633e-05
  3.8332029e-05
 -9.1056418e-06
  2.2951515e-05
  3.6200498e-05
  6.5690387e-05
 -1.4249339e-03
  2.0430330e-02
  8.6986914e-02
 -1.8603396e-02
  6.1370229e-06
 -1.4165640e-04
  4.7835451e-01
  8.2213635e-05
 -8.5759815e-04
 -1.2019075e-04
  1.0341471e-04
 -1.7707855e-04
 -9.6071126e-05
 -3.6784087e-04
  9.8796852e-05
 -1.7948172e-04
  2.5671019e-04
 -4.2967728e-04
 -1.4654973e-04
  1.7036832e-04
  9.3206647e-05
 -5.4248332e-05
  2.0811560e-04
  2.5552895e-04
 -4.5901048e-05
  2.2865295e-05
  1.9644291e-05
 -5.1945745e-04
 -1.1501691e-04
 -9.7316571e-02
 -6.2733138e-01
  3.7961818e-02
 -9.0779781e-02
 -5.9260541e-01
 -1.1311379e-04
  3.4184291e-04
 -6.2852353e-01
 -1.4712679e-03
 -9.9533689e-01
  1.5778546e-04
  1.8023163e-04
 -8.6351484e-01
  1.1497640e-04
 -1.1837775e+00
 -8.8236533e-04
  6.9699454e-05
 -3.9321512e-01
  3.7856989e-05
 -8.8177216e-01
  6.0845654e-05
  6.1113889e-05
 -4.3036103e-01
 -5.0961928e-05
 -5.5726367e-01
 -2.6715104e-05
 -2.8143931e-04
  2.0840674e-04
  1.0571130e-04
 -3.0344443e-05
  3.8461361e-04
  7.9878126e-05
 -8.6497620e-02
 -3.9880857e-02
  1.2758108e-04
  1.0375472e-04
 -5.6246405e-05
 -1.2090347e-04
 -4.3936487e-04
 -6.2418163e-05
  5.1966672e-05
 -6.0425922e-05
 -1.9697084e-04
  1.7598893e-04
 -2.1472140e-03
  5.5325643e-05
 -1.1958688e-04
 -1.0366774e-04
  1.2119684e-05
  4.7923450e-04
  4.4023032e-05
 -3.5868969e-05
  1.4115511e-04
 -5.8914538e-06
 -5.8548711e-05
 -2.2017689e-04
  1.2410365e-04
  4.9356055e-05
 -5.4342049e-04
  1.4288192e-07
 -1.5765040e-04
  4.4184204e-04
 -1.0306764e-04
 -8.0273036e-05
  1.5213183e-04
 -1.6136088e-04
 -8.3190396e-05
 -1.4135995e-05
 -2.5144160e-05
  2.6801779e-05
  4.7795820e-05
 -5.2736927e-05
  2.6298405e-04
  3.4353431e-04
  9.9662000e-05
 -2.0335875e-04
 -1.0700565e-04
  6.6568004e-04
  6.0766059e-05
  5.7793859e-05
 -2.9565645e-05
 -4.9025602e-05
 -6.4107931e-05
 -7.6646356e-05
  1.1735700e-04
 -2.3228589e-04
  3.7341120e-05
  1.4395217e-04
 -1.2322191e-04
  3.7672187e-04
  1.1198519e+00
 -8.5992992e-01
 -4.3258741e-01
  8.1612684e-02
 -3.3701843e-01
  5.3000993e-05
  7.3416457e-05
  1.0074545e-04
  4.6458517e-05
 -7.5763406e-04
  6.5934187e-04
 -1.4656369e-04
 -3.1609094e-04
  1.2388622e-04
 -6.7057505e-02
  1.5823028e-04
 -5.2204781e-05
 -4.8589788e-04
  1.6836618e-04
 -7.7094156e-03
 -1.2705769e-04
 -2.1843435e-04
 -7.4671384e-06
  1.4736870e-04
 -1.0197989e-04
  1.2764086e-05
 -1.9772304e-04
  9.1633774e-05
 -1.9178922e-04
 -1.3554243e-04
 -5.0940039e-04
  8.3768882e-02
 -2.2824421e-03
 -1.1971799e-04
  2.6239164e-04
  5.1714436e-05
  4.7631474e-04
 -1.8580964e-04
  1.3854667e-05
  5.7053701e-05
  5.4113196e-05
 -1.5003499e-04
  5.5583281e-05
 -4.4843255e-06
 -4.4130244e-05
  3.6596768e-05
  4.5660945e-06
 -1.8106654e-04
 -5.5423508e-05
 -3.2644087e-04
  1.3912589e-05
  3.7284986e-05
 -7.1204238e-05
 -1.1305751e-04
 -5.4856046e-05
  1.0268074e-04
 -1.5740491e-04
 -6.8884248e-05
  1.5018732e-04
  1.6307186e-04
 -1.6301925e-01
  7.1646256e-04
  6.4309113e-02
  1.2314638e-01
 -1.0146815e-01
 -1.0476463e-04
 -1.1193621e-04
 -5.4745047e-05
 -1.5633604e-04
 -1.1051750e-03
 -6.7939574e-05
 -1.2291559e-05
 -1.7047724e-04
  2.1412914e-05
 -2.9312996e-02
  2.2847706e-04
 -2.1669910e-04
 -1.6891542e-04
 -1.3441786e-04
  1.1632624e-04
 -1.1042052e-06
  1.0832206e-04
 -4.8105876e-04
  1.8660347e-04
  3.2284916e-05
 -1.1717544e-04
 -2.3001619e-04
  7.0677481e-05
  1.6083656e-06
  4.7956779e-05
 -4.8578152e-04
 -6.3000363e-05
  2.5276411e-05
  1.2061880e-04
 -4.6247711e-05
  3.1860589e-04
  9.7333235e-05
 -5.6099710e-05
  4.6343975e-02
  4.0336672e-05
  1.6811457e-05
 -2.8023901e-04
 -2.6067741e-05
  9.6349613e-05
 -1.2981993e-04
 -3.1212406e-04
  1.0245762e-04
  1.2583945e-04
 -1.2050616e-02
 -5.8420672e-04
  4.9499482e-01
  1.5597233e-01
  1.4938417e-04
 -5.4206197e-05
 -1.9446954e-02
  2.7658057e-04
 -1.7516427e-04
 -6.1954251e-03
 -6.1318168e-04
 -1.0699230e-05
  4.3960184e-02
  2.0995441e-04
  4.9276518e-05
 -1.0023428e-04
 -2.6044855e-04
 -7.0634715e-02
 -3.2203712e-07
  8.2038529e-02
 -4.0570566e-01
  8.6360320e-02
 -2.3882861e-04
  1.4261110e-04
 -4.6090168e-05
  2.2950883e-04
 -2.0123176e-01
  1.1375118e-01
  9.9982306e-02
  1.7699346e-01
 -3.4330299e-01
  2.2795385e-01
  3.1676194e-01
 -2.2292595e-01
 -5.6517503e-05
 -1.5225668e-01
 -1.2142050e+00
 -1.2365714e-01
  2.0467409e-05
 -3.8085487e-01
  6.0945723e-02
 -1.7953731e-01
  2.9005961e-02
 -4.6012159e-02
  2.7884103e-04
 -1.4736975e-02
 -1.3231085e-01
 -1.3606538e-03
  1.4538259e-03
  2.2875825e-05
 -4.3325294e-05
 -1.0255168e-04
 -3.0128274e-03
  8.2316128e-06
  9.9788325e-05
  2.4350043e-04
  1.1515766e-05
  1.5528315e-01
  4.4994153e-02
 -3.2068023e-05
 -1.0257339e-04
 -1.1035406e-04
  6.5174833e-02
  5.6189229e-03
 -1.5640998e-03
  1.9050796e-04
 -2.9083956e-05
 -5.3289649e-04
 -8.8760688e-05
 -1.1170857e-04
  7.9468664e-06
 -3.3062280e-04
 -3.7133761e-04
  5.9621838e-05
  1.7578423e-04
  4.3408181e-05
 -4.4290061e-04
  2.2551449e-04
 -8.9966343e-05
  2.8369810e-05
 -2.3410354e-04
  7.3566924e-05
 -2.8033428e-05
  3.2376014e-05
 -6.6721661e-04
 -1.3542223e-04
  3.0015470e-04
 -4.2555661e-05
  4.8849860e-04
  4.4929219e-04
  3.3081172e-04
  2.3690402e-04
 -1.6344119e-04
  7.1704423e-04
  3.9033691e-04
 -3.2710726e-05
 -5.5516321e-05
  6.8274443e-05
 -1.5004243e-04
 -2.2045283e-04
 -1.3656638e-05
 -2.3357516e-05
  1.5585414e-01
 -4.8602056e-02
  1.6947386e-04
  3.6162089e-04
  1.6126755e-01
 -3.8111944e-02
  2.0711489e-02
 -5.1937302e-05
 -2.2032105e-04
  1.2465872e-04
  7.3033765e-02
  9.4787299e-04
 -7.6537050e-05
  1.2537459e-02
 -3.8010464e-04
  5.6781463e-02
  1.5558474e-01
 -3.0014501e-04
 -8.7401721e-05
 -1.0107518e-04
  6.6236041e-02
  4.1901380e-02
 -4.8480470e-02
  3.4991506e-04
  2.0537142e-05
 -1.1280354e-03
 -1.4170844e-03
 -1.9637099e-04
 -5.1586292e-05
  2.4735014e-04
 -1.5710618e-01
  4.5016238e-01
  7.0217484e-06
 -1.1647261e-04
  5.7287931e-01
  1.2313000e-01
 -2.0388094e-01
  1.8969439e-04
  1.3056776e-04
  7.4513468e-05
  6.3008821e-01
 -5.9371749e-05
 -3.0288569e-05
 -9.5282421e-02
  5.0264654e-05
 -6.4356044e-02
 -1.9894977e-01
  4.2460393e-05
  1.3422426e-04
  2.0516766e-04
 -1.8997703e-01
 -1.9274023e-01
  9.3413450e-02
 -9.6459180e-02
  2.3340802e-04
  3.7626499e-01
  2.4869287e-04
 -1.4769887e-04
 -5.2972791e-05
  5.0711405e-05
  3.2855904e-01
 -2.2785856e-01
  1.2345075e-05
 -4.5379820e-05
  3.1139335e-01
 -4.0074086e-01
  3.2545125e-01
 -1.3212025e-03
  8.7224980e-06
 -1.5852798e-04
 -2.3556102e-02
  1.5548494e-01
  5.1752008e-02
  3.2207778e-01
 -1.2774371e-04
  2.0281196e-01
  3.0969915e-01
 -1.3423550e-03
 -3.2387801e-02
  1.6700807e-04
 -4.1542300e-03
  4.0329280e-01
 -3.5555467e-01
  2.3801230e-01
 -2.2322005e-04
 -2.0192677e-01
 -2.1708341e-01
 -9.9268036e-05
 -1.1636357e-04
  7.4654003e-04
 -1.4858245e-04
  1.9093973e-04
  1.1123734e-04
 -1.9971334e-04
  3.8914979e-05
  7.7281638e-06
 -5.3933811e-05
  2.7389724e-05
  6.9283793e-05
  5.2050149e-05
 -5.0889935e-07
  5.0470815e-05
 -2.3959715e-04
 -6.9387470e-06
 -2.1875811e-04
  1.6917724e-02
 -1.4906745e-04
 -8.6999418e-05
  2.6502306e-05
 -5.8420104e-05
  1.7652374e-04
  8.7421482e-05
  8.3452513e-05
 -2.4576122e-05
  2.2447937e-05
 -1.5314794e-05
  1.5360019e-04
  1.3290462e-04
 -1.2926514e-04
  1.9981499e-05
 -1.8140530e-05
  1.7240422e-04
 -8.4841355e-05
  3.1763200e-05
 -1.0620148e-04
  9.5771487e-05
  2.9098735e-05
 -2.4051908e-04
  2.2074639e-05
  2.2607988e-04
  3.2479069e-04
 -3.1365998e-05
 -1.3845738e-04
  4.2101325e-05
  9.8515527e-05
 -2.3741938e-01
 -8.8676070e-06
 -8.1697835e-05
 -5.8892747e-05
  1.0444120e-05
 -6.2376726e-04
 -3.6843550e-05
  4.3120145e-04
  3.5973604e-05
 -7.1130398e-07
 -3.7014950e-05
  5.2583049e-04
 -7.0308465e-06
  3.5429504e-05
 -2.6542527e-04
  8.5359097e-06
 -5.5161840e-05
 -1.5723530e-05
  5.5463147e-06
 -1.0317685e-05
  9.7091433e-05
 -7.6150456e-05
  5.9970975e-05
 -1.0378977e-04
 -1.3359141e-04
 -6.5488704e-05
 -2.2616605e-05
  1.4576154e-04
 -2.2287400e-05
 -2.7748939e-04
  1.3932143e-04
  1.4669682e-04
 -2.0052690e-05
  7.1314236e-05
 -5.0530434e-05
  1.7125192e-04
  6.4764055e-05
 -1.1005999e-04
  3.9822513e-05
  1.6885571e-04
  4.2395512e-04
 -1.1005023e-04
  8.3984349e-05
 -2.4819066e-04
  2.5549810e-04
  1.0983150e-04
  1.0813949e-04
  8.4442094e-05
 -3.5317877e-05
  9.7989068e-05
  2.3583401e-04
  4.4453260e-05
  1.7337335e-04
 -1.0995788e-04
  6.8465190e-05
 -2.6166645e-06
  1.2987758e-04
 -1.0810304e-04
 -9.1184258e-05
  3.3826902e-05
 -2.2919552e-04
  2.0684142e-04
  1.6901557e-05
 -3.3576091e-04
  4.3634357e-04
 -1.1133793e-04
  4.9572322e-05
 -5.2166251e-05
  1.6721930e-04
  3.2264419e-05
  4.8113459e-05
  2.7046795e-04
  5.8121557e-05
 -8.6826891e-05
  1.8015674e-04
 -1.5370335e-04
  4.4122906e-04
 -2.8941815e-04
  6.1401290e-05
  2.8240642e-05
  8.3453015e-05
 -6.6426940e-02
  1.6135990e-04
  4.6935875e-04
 -7.9518824e-05
  8.3135004e-04
  4.8452057e-04
 -1.1074069e-04
  9.7386044e-05
 -3.6893733e-05
  6.7334564e-05
 -1.0190427e-04
  1.4794401e-04
 -3.0036664e-04
 -6.2154344e-05
 -4.2604013e-05
 -1.3258151e-04
  5.7014263e-06
  8.4799729e-05
 -3.9692259e-05
  8.2868028e-06
  8.1440652e-05
  6.7780667e-05
 -9.8322300e-05
 -3.2247914e-05
 -2.9764419e-07
 -9.8515389e-05
  2.0903815e-06
  1.1437813e-04
 -2.4311658e-02
 -1.7587890e-05
  8.4294741e-05
 -2.0127714e-05
 -1.3821204e-05
  2.2751246e-07
  4.8148373e-05
 -4.5470875e-05
  5.7366764e-05
  2.3171073e-04
 -3.1251408e-04
  5.2137184e-05
  1.9125153e-04
 -3.0068407e-04
 -1.0551746e-04
  2.6437821e-04
  1.2854525e-04
  1.7279384e-04
  3.2214946e-05
  2.1380713e-04
 -3.1098196e-05
  2.3458112e-04
  1.4740142e-05
 -7.4467644e-05
  1.0513594e-04
  1.2135360e-04
 -2.7637294e-01
  2.3861457e-01
 -2.5227268e-05
  6.5094704e-05
 -2.7493393e-01
  1.0236077e-01
 -7.1622975e-02
 -5.3211130e-05
  3.3552630e-04
 -3.5557111e-06
  7.6478265e-02
 -3.3691037e-02
  4.4640714e-05
 -6.9598153e-02
 -6.9060034e-06
 -2.5399558e-02
 -1.7259108e-01
  1.8575993e-04
 -9.1056514e-05
  3.6012501e-05
  2.3955869e-02
 -1.0526186e-01
  1.1519983e-01
 -1.2150012e-02
  4.9535032e-05
  1.2031334e-02
  9.6262276e-02
 -9.0536116e-05
 -1.8893818e-06
  1.4718318e-04
  1.0285408e-01
 -3.5892110e-04
 -6.0111832e-02
  5.0072009e-05
  1.5261775e-02
 -1.9938754e-05
  6.0315203e-04
 -6.3325104e-05
 -3.0303319e-04
  6.0211478e-05
 -1.1301634e-01
  1.9469077e-04
 -2.9142648e-05
  1.5081682e-04
 -3.6049628e-04
  3.5726798e-01
  3.7398651e-02
 -3.3204728e-05
 -3.0590582e-04
  1.9110416e-04
  1.6639931e-01
  3.1181250e-03
 -8.2769518e-04
  7.4807002e-04
 -9.0526148e-05
 -5.7996000e-05
 -2.3444468e-04
 -1.4647501e-04
 -1.6873890e-04
 -3.2011583e-05
 -1.7000569e-02
  2.0354727e-04
  4.4095625e-05
 -1.8519246e-04
 -2.9817270e-03
  3.0972902e-04
  1.1382123e-05
 -2.0148113e-04
 -4.9998413e-04
  3.1409705e-05
 -7.8126568e-06
  4.7530066e-05
  1.9608512e-04
 -5.6811710e-05
  3.0616375e-05
 -4.7827987e-05
 -8.4152701e-04
  4.1313902e-05
  1.6052612e-04
  1.7688650e-04
 -3.9303600e-04
  7.1055838e-06
  7.9817992e-06
  1.9622103e-05
  9.7708595e-05
  1.5914997e-02
  2.9775672e-05
  1.4346841e-04
  3.5462810e-05
 -6.0984853e-06
 -1.6008756e-01
  1.2270012e-01
  3.0382704e-02
  1.5380763e-01
 -1.9788447e-01
  1.5486303e-01
 -1.1266933e-01
  2.8183505e-05
  9.3392147e-05
  1.5800190e-04
 -1.3815393e-01
 -2.6833958e-03
  2.3655268e-05
 -5.0904982e-02
 -4.9983515e-05
  1.3552783e-01
 -2.2291096e-02
  2.9759327e-04
  1.2575199e-05
 -2.4986078e-04
 -1.5133449e-01
 -1.5275106e-01
  1.2826790e-01
 -5.0778996e-02
 -5.4633605e-05
  5.9360519e-02
  6.1182003e-03
  1.2030150e-05
  2.7077120e-05
  1.0008159e-04
  2.4096254e-05
  2.0465741e-04
  3.1249711e-04
  1.4987259e-04
  2.3283163e-04
 -6.1488223e-05
  2.1925180e-04
  3.0638644e-04
 -2.0469810e-05
 -1.3431447e-04
 -7.4754244e-05
 -7.4096752e-05
 -2.1167965e-05
  6.8325491e-05
 -1.0786484e-04
  2.2407468e-04
 -5.1284689e-05
 -5.2041585e-05
  5.0089664e-05
 -1.6748381e-04
  1.3694762e-04
 -3.2980874e-04
 -1.1556159e-04
  1.4699140e-04
 -1.0941755e-04
 -1.0446307e-04
 -6.5344393e-05
 -1.7341980e-04
  1.3011228e-04
  1.5641632e-04
 -2.8780503e-02
  2.6489955e-01
  5.2865213e-05
 -7.9934289e-06
  1.3364895e-01
  2.8210506e-01
 -2.0868336e-01
 -1.3444888e-04
  4.6514986e-05
 -1.0562719e-04
  1.2783334e-01
 -1.6616340e-01
  1.0217494e-05
 -1.1672346e-01
 -3.0876581e-05
  1.5267538e-01
 -3.0545807e-01
  2.9286086e-03
  1.8972376e-03
 -4.7657845e-04
 -2.3510550e-01
 -2.4501511e-01
  2.1881971e-01
 -1.0905483e-01
  8.3713931e-05
  4.2226318e-02
  8.4684707e-02
  2.7643886e-04
  2.2352026e-05
  1.5220727e-04
  2.9255572e-05
  4.5366985e-05
  6.6412875e-05
 -2.0701179e-07
 -1.1389302e-04
  5.2638934e-05
  2.6137198e-04
  5.1849194e-05
 -1.7840703e-04
  6.6712810e-06
 -5.8063661e-06
  2.2082834e-04
 -7.0179260e-05
 -6.4766238e-05
 -1.5996683e-04
 -2.6199603e-04
 -5.5106124e-05
  1.2186005e-04
  2.6724007e-05
 -1.1474618e-05
 -6.3979365e-05
  2.0468734e-04
 -6.7255292e-05
 -2.3236467e-05
 -1.0048121e-04
 -6.6572502e-05
 -3.3755854e-04
  1.8012441e-04
  2.2859967e-04
 -2.1638974e-05
 -6.9365560e-06
 -7.7985555e-05
  1.6350969e-04
 -7.3184856e-05
  3.2803247e-05
  5.8647693e-05
 -4.5449971e-05
  2.2226995e-05
  7.8175428e-05
  5.1114115e-05
 -9.8397330e-05
 -2.7374449e-04
  4.6537775e-06
 -1.3733066e-04
 -1.4424705e-04
  8.6953405e-05
  2.3600756e-04
  2.9191550e-02
  2.4875731e-05
 -6.5316731e-06
 -1.6624963e-05
 -1.1864996e-04
 -7.4614858e-05
  8.4047228e-05
 -5.1798466e-05
  1.3007701e-04
 -9.3144990e-05
 -1.6975873e-04
  1.1346840e-05
  2.2345665e-05
  2.5955486e-04
 -3.2976521e-05
 -4.5445260e-05
 -2.4885571e-04
 -7.1070877e-05
 -5.4624834e-05
 -2.9595745e-05
  9.8368591e-06
  1.8621849e-04
  1.3789046e-04
  4.7635456e-04
 -4.8784033e-05
 -2.8251381e-05
 -3.4898778e-05
  4.3700991e-05
 -8.8197557e-06
 -3.9564646e-05
  2.9170193e-04
  1.0661400e-04
 -2.7420227e-05
  2.3597099e-04
 -7.6700533e-05
 -1.7667413e-05
  1.7752583e-04
  1.8226063e-05
 -1.9743614e-04
  1.1670439e-04
 -3.6656711e-05
  4.0807168e-05
  5.6271729e-05
  4.9848575e-05
 -1.5060681e-04
  1.3109093e-04
  8.1039332e-05
  3.3042448e-05
  5.7005429e-05
  5.6839730e-05
  3.8089209e-05
 -7.9400697e-06
  5.3012330e-04
 -6.0058665e-05
 -7.3649285e-06
  9.9970151e-05
 -5.4024007e-05
  2.1711655e-04
  2.0559512e-05
  4.3436423e-05
 -1.1361563e-04
  3.0031134e-04
 -5.4870407e-06
 -2.9950157e-05
 -4.7484431e-05
 -1.6838792e-05
 -9.2153758e-05
  2.4858399e-04
 -2.4511674e-04
 -5.0710642e-05
 -1.0413412e-04
  1.5690386e-04
  2.1892758e-04
 -3.2877539e-05
  2.3786092e-04
  2.9249876e-04
  3.2247706e-05
 -3.1170410e-03
 -5.1386727e-05
 -2.0322682e-04
  1.0501261e-04
 -4.0683506e-05
 -1.2304384e-04
  1.5835878e-05
  1.5467072e-05
  1.3189361e-05
 -5.3871132e-04
  8.7719709e-05
 -5.7259016e-04
 -7.6113967e-05
  3.0606720e-04
  2.4521316e-04
  1.0378851e-05
 -2.2123790e-04
 -3.3476568e-05
  8.4436433e-06
  2.9235557e-04
  1.6870787e-05
 -5.8472400e-05
  2.8134944e-05
 -8.7734661e-05
  2.0573415e-04
 -1.1272125e-04
  5.3492284e-05
 -7.3603544e-05
  5.6088816e-06
  1.7006058e-04
  1.7503873e-05
  2.8715155e-04
  3.7919491e-04
 -4.5199768e-06
  7.9720616e-05
  1.3764943e-04
 -2.7004630e-06
 -1.4990332e-04
  2.0462985e-05
 -7.6228716e-05
  1.2763681e-04
  1.0340911e-04
 -1.3920885e-04
 -8.7527886e-05
  1.7635830e-04
 -6.4594888e-06
 -1.9067724e-05
  1.8866261e-04
  1.3418501e-04
 -7.8768076e-05
  6.3043801e-05
  6.6973934e-07
  8.5734908e-05
 -4.9587365e-05
 -2.8030833e-04
  2.0989470e-04
 -1.5687814e-05
 -3.7211063e-05
  1.4189479e-04
  3.2617326e-04
  5.6550387e-05
 -6.4244443e-05
  9.4929994e-05
  8.9742796e-05
  4.7644746e-04
 -2.7132768e-05
 -1.1689206e-04
  6.3636464e-05
 -7.2804527e-05
  3.1287788e-04
 -4.1892732e-04
 -1.6443152e-04
  6.7543959e-05
  1.7801522e-05
  2.9056269e-04
 -1.9028766e-05
 -5.5082199e-07
 -1.7212329e-05
 -1.1195120e-04
 -1.4904260e-05
  3.8662981e-04
 -7.1330083e-05
 -4.7334521e-05
 -5.2228797e-04
  3.3498083e-05
  3.3251083e-04
 -2.2341740e-04
  2.9944316e-05
 -1.9380777e-05
  8.5526211e-05
 -2.3542983e-04
  8.7426029e-05
  3.5760211e-05
 -3.8464019e-05
 -1.1003961e-04
  4.2056409e-04
  6.7314053e-05
  1.0977531e-04
 -3.8333590e-05
  5.6084618e-06
 -5.4302422e-05
  8.5424450e-05
  7.6483193e-05
 -1.9753954e-04
 -3.8954240e-05
  9.5681741e-04
 -2.6534079e-04
  5.5274148e-05
 -4.7287435e-06
 -1.2220376e-05
  1.0269710e-04
  4.9619488e-02
  3.2218550e-06
  1.0417039e-04
 -9.4342482e-05
 -8.2381186e-05
  8.0817929e-03
 -5.7554588e-02
 -5.1483925e-04
  1.6359938e-04
  1.0741430e-02
 -1.2908855e-02
  3.4777359e-03
  1.1544057e-05
 -3.6680876e-04
 -3.4786770e-04
 -6.5852599e-03
  8.0917071e-04
 -1.5742493e-04
  5.2177373e-05
  2.9828821e-05
  2.7894646e-01
  8.7579235e-02
 -4.9158221e-04
 -7.9166030e-06
 -6.3951511e-06
  5.9680413e-02
  1.7364558e-02
 -2.7888985e-03
  3.9598113e-04
  1.2607059e-02
 -8.9412631e-04
 -3.4561966e-04
  2.5287981e-04
  5.3216238e-04
 -3.7867462e-04
 -1.1168625e-04
 -5.7437751e-06
  1.9760165e-04
 -4.8963549e-05
 -3.3208751e-05
  8.3185105e-06
  8.8437861e-05
  3.0706953e-05
 -4.6665955e-04
 -2.3692768e-05
  5.1225205e-05
  4.4429460e-05
  3.6712416e-05
 -3.2057626e-05
  2.7838748e-04
  2.8902390e-05
 -2.9562582e-04
 -3.6536058e-04
 -2.6546206e-05
 -1.4275231e-04
  7.2398325e-05
  1.5980763e-04
  1.1804308e-04
 -1.6769325e-05
  1.3196380e-06
 -6.5598338e-06
  9.5973752e-05
 -1.1550399e-04
 -1.5364598e-05
 -1.1282277e-04
 -1.0323460e-04
 -1.0573353e-05
 -4.2022195e-05
 -6.0511275e-07
 -5.6198024e-07
  8.0274775e-05
 -9.3236034e-05
  2.6896977e-04
  6.1042942e-05
  1.3042727e-04
  1.5312861e-04
 -1.6048885e-04
  4.3138956e-05
 -3.8413498e-05
 -1.5514331e-06
 -1.2569463e-04
  1.1816101e-04
  1.4947548e-04
 -1.8090407e-04
  2.9757075e-04
 -3.5395479e-04
 -1.4846896e-04
 -3.5378814e-04
  2.1691888e-04
  4.9500522e-05
  1.2830541e-05
  6.5976230e-05
 -1.5781153e-04
  6.4693799e-05
 -2.1624601e-05
  1.0487492e-04
 -2.9080553e-04
 -2.6254133e-05
  2.0234752e-04
 -4.3817349e-06
 -4.0916528e-04
  1.1569122e-04
 -2.2702052e-04
  4.8175520e-05
 -9.2073492e-07
  1.4904355e-04
 -1.5050831e-05
 -1.5451832e-04
 -7.1922135e-05
  5.1589118e-06
  3.2286796e-05
  5.3336122e-04
  1.6652429e-04
  6.4617762e-04
  1.8593774e-04
 -1.6365517e-05
  7.1018942e-05
  2.7876706e-06
  2.4239854e-04
 -3.5326739e-04
 -2.3123785e-04
  4.2891770e-04
 -3.9008330e-04
  1.2918586e-04
 -3.0816300e-05
  1.5614698e-04
  6.2343563e-05
 -1.0694299e-04
  6.8875015e-05
  2.5498133e-05
 -7.3365547e-05
 -9.2282447e-05
 -1.7957553e-05
  2.8292561e-04
  1.4516703e-04
 -3.1586627e-05
  4.9567381e-05
  3.1507606e-04
  3.0127287e-04
  9.0849775e-05
  2.5017117e-04
 -8.3050727e-05
  1.5812716e-06
 -1.5810159e-05
 -1.3127309e-04
 -3.2150387e-05
 -1.7178959e-04
 -6.1628339e-06
  3.1524545e-05
 -2.0419696e-04
  7.2605064e-05
 -1.0090294e-04
  1.0080441e-04
  2.7643417e-05
 -2.7228038e-05
 -9.1831454e-05
 -2.1461776e-04
 -1.1721410e-04
 -2.0782510e-02
  1.1024671e-03
  1.5521442e-05
  4.6731363e-04
  4.6332800e-05
  6.9397058e-05
 -1.2161346e-04
  9.7432669e-05
 -4.2109414e-06
  1.2436129e-04
 -5.5000452e-05
 -4.9873420e-06
 -1.2314897e-04
 -1.8701807e-04
 -9.5330761e-05
 -4.3591510e-05
 -1.9924077e-05
  7.7976057e-07
  1.7071920e-04
  3.7631555e-05
  2.7253359e-04
 -3.1472628e-05
  1.1899604e-04
 -2.9956693e-05
  1.3077106e-04
  1.0376586e-04
  8.0031932e-05
  3.2849783e-01
  8.2814231e-06
  4.0388256e-01
 -8.6304682e-01
  1.3004347e+00
 -4.9802207e-04
 -3.9669488e-02
  1.1161075e-04
 -1.5689005e-04
 -1.1543670e-04
  5.1508730e-05
 -5.3686494e-01
  3.1825927e-01
 -1.7918733e-01
 -6.3714778e-01
  8.1549049e-05
 -8.5569584e-01
  2.5075097e-03
  8.4398634e-05
  6.1169369e-05
  2.8858494e-04
 -1.3627796e-01
  2.0433581e-05
 -3.8038143e-06
 -1.7079221e-04
  3.4089962e-01
 -5.4703810e-04
 -5.3014024e-04
  1.6965429e-04
  3.6945625e-05
 -2.3502800e-01
  1.3376383e+00
  6.0889405e-01
 -8.3465683e-01
 -2.4368976e-01
  7.5299841e-01
 -9.0402318e-05
  2.1841616e-04
  5.1835486e-05
  1.2641831e-04
  1.0988814e+00
 -2.3531608e-04
  2.8284425e-01
 -2.5489719e-03
  2.8005341e-05
  6.0670588e-02
  6.8329982e-02
 -1.0598428e-01
  2.0559093e-04
 -2.1139019e-04
 -1.7558807e+00
 -2.6133063e-01
 -1.4559081e-01
 -4.0367180e-01
 -3.8449246e-02
 -4.7758269e-01
  6.8888156e-05
 -1.2120625e-04
 -2.2214875e-04
  2.7844027e-04
 -6.8998975e-01
 -3.9943272e-01
  1.5836826e-01
  1.5150872e-01
 -5.6055778e-01
 -6.8517172e-01
 -2.6637441e-02
 -1.6074675e-01
  1.1449129e-05
 -8.0566322e-03
 -4.7836393e-01
  2.6788967e-04
  8.9879954e-01
 -3.9164777e-05
  1.8566294e-01
 -1.6602655e-01
  9.2742346e-05
  1.1874876e-01
  1.0672407e-04
  1.8088434e-04
  1.3554922e-01
  3.2163331e-01
  2.4057770e-01
 -2.1783084e-01
 -7.8101546e-02
 -3.2230216e-01
  7.1252594e-05
 -9.0843186e-02
  9.4405616e-05
  4.7920426e-04
 -2.6897784e-02
 -2.9959950e-01
 -2.5589323e-01
  1.3426632e-04
 -4.0290350e-01
 -6.3181542e-02
 -6.5815329e-05
  2.0043008e-01
 -1.9901362e-01
  8.8400584e-06
 -2.2805081e-01
 -2.3541777e-04
 -1.6475792e-01
  6.5261293e-03
 -2.8498814e-01
 -6.9520228e-02
 -2.2861101e-02
 -1.8640107e-01
  1.0670993e-04
  1.5882349e-04
  7.8294146e-01
  1.0754882e-02
  6.6884062e-03
  7.5561874e-02
  5.6586991e-04
  7.0468627e-02
  4.1759344e-05
  2.9825891e-04
  4.8170721e-05
 -4.9372225e-06
  7.2801076e-02
  2.4212066e-02
 -1.7708542e-02
 -2.3431207e-01
 -5.9645763e-04
  1.9564779e-01
 -4.2609805e-03
 -2.7178192e-01
  1.3997409e-01
 -1.1367133e-01
  7.1258873e-01
  2.6742987e-02
  1.7205322e-04
 -9.9594966e-02
  1.3836296e-01
 -1.1809573e-01
 -1.0802467e-01
 -5.1419985e-01
 -1.8468572e-05
  1.9954184e-04
  3.5575490e-02
 -9.7156159e-04
 -9.2377640e-02
 -2.6688707e-01
 -5.2669912e-04
 -2.9368090e-02
 -2.2053343e-04
 -8.9337468e-02
  1.5752559e-04
  1.6599002e-04
  2.3742857e-04
 -1.0194572e-01
 -1.6525316e-01
 -7.7122688e-02
 -3.6415514e-01
 -1.9393423e-04
  3.9434273e-04
  1.4837604e-05
 -8.8566661e-02
 -2.8073956e-04
 -1.7239607e-04
 -6.2227220e-04
  6.1834435e-05
  2.2915885e-04
 -5.7092708e-05
 -2.5915904e-05
  6.7008172e-05
 -1.8470703e-01
  5.2566564e-05
 -9.3913739e-05
 -3.1418787e-04
 -1.6895958e-05
  1.5744798e-05
  1.9507155e-04
  8.5848333e-05
  2.0274660e-04
 -1.2763352e-04
  2.6050743e-04
 -4.5368896e-04
 -5.7787987e-05
  6.6731227e-05
 -3.8743598e-04
 -4.6417787e-04
 -1.2446831e-01
 -1.5810011e-04
  2.9289786e-02
 -2.8587907e-05
  2.2453856e-05
 -2.3002687e-04
 -2.2974612e-04
  1.0279423e-05
 -1.0350359e-05
 -1.0781181e-04
 -1.3000667e-03
  2.4515431e-04
  1.0959290e-04
  5.9934562e-05
 -2.2184299e-04
 -7.6827484e-05
 -2.2194517e-05
  1.6209623e-03
  1.9568122e-05
 -1.9044125e-03
 -2.8387152e-04
  2.6805365e-05
  4.6209706e-04
 -5.6873254e-05
  8.7010652e-05
 -1.3113616e-04
  9.4733907e-05
 -1.3174926e-02
 -1.1324929e-04
  1.2538677e-02
  7.9890713e-03
 -6.0260473e-03
 -4.3241773e-03
  6.2465064e-02
  1.2558280e-02
 -5.7382863e-03
  7.3449783e-02
 -3.5127502e-02
 -7.1633667e-02
  2.3958727e-03
  1.1277681e-01
 -1.9552438e-01
  2.5383774e-02
  1.9937067e-01
  2.4742130e-02
  2.7760020e-01
 -2.4112904e-02
 -3.8468134e-02
  5.8038003e-04
  2.1859456e-02
  1.7187420e-02
 -2.7007894e-05
  1.7182905e-03
  5.7910727e-03
  3.6449888e-01
 -3.0283663e-01
 -2.1817647e-01
  2.8554109e-04
 -9.1805647e-05
 -1.8106958e-04
 -1.8021211e-04
  1.7194892e-04
  8.3545528e-05
 -6.5705157e-05
 -1.2999850e-04
 -1.2446154e-04
  1.9888155e-04
  5.4026164e-05
  1.5302763e-04
 -5.7312962e-05
  4.7438949e-05
 -1.7752619e-04
 -1.2470401e-04
  2.6860142e-05
  2.3938548e-05
  6.4519620e-05
  3.2421660e-05
 -2.2917661e-04
 -1.1933949e-04
 -3.1275220e-05
 -4.4641743e-05
  3.7833038e-04
  4.5448751e-04
  2.1165033e-04
  5.7236633e-05
  1.2715653e-04
  8.7304230e-05
 -4.3355752e-04
  2.9215222e-05
 -4.9634468e-06
  5.8175832e-05
 -4.9256000e-06
 -4.0311561e-04
 -3.1529902e-04
 -3.8982261e-04
 -1.8523945e-04
 -1.7346432e-04
  4.4464750e-06
  1.7471965e-04
  2.5689706e-05
  1.7411452e-04
  1.5884019e-04
  2.3535574e-04
  1.9670211e-04
 -3.8329530e-05
 -1.7747225e-04
 -2.7811059e-04
  1.0604087e-04
  2.8700575e-05
  2.2369572e-04
  4.6990158e-06
  9.7429802e-06
 -1.1948899e-04
  4.5742439e-05
 -1.5932990e-05
  1.4399960e-04
 -5.0082977e-05
  4.6622011e-04
 -3.1181450e-03
 -3.4324732e-01
 -3.0762517e-01
 -5.3220525e-02
 -3.4470955e-01
  2.1014335e-04
  3.8249235e-04
 -3.1875498e-03
 -1.0489056e-04
 -8.6250685e-02
 -2.3296461e-04
  2.2970065e-03
  4.0968382e-05
 -3.2831978e-03
  2.0473283e-04
 -7.9114652e-05
  3.4326510e-04
 -3.1088290e-04
 -2.9045255e-05
 -2.0061430e-01
 -6.2219449e-05
  8.8671331e-05
  2.6749594e-05
 -1.7327933e-04
  4.7987599e-02
  1.6182842e-04
  3.2286951e-04
 -1.4801724e-05
 -6.2508381e-04
 -4.2138166e-05
 -2.8323233e-05
  4.0785948e-05
 -1.3293617e-04
  2.0363020e-04
  2.4084533e-05
  1.9280199e-06
  2.6919617e-04
  4.9093735e-05
  1.3829397e-04
  1.3088185e-05
  3.7569815e-05
 -3.6014531e-05
 -2.2599284e-04
  6.9201691e-05
  1.1312113e-04
 -2.7800279e-06
  1.6290631e-05
 -4.3617674e-05
 -8.6070671e-05
  8.2926847e-05
  1.1407361e-04
 -4.0086670e-04
 -9.2499649e-05
 -8.6485943e-06
  1.7788407e-04
 -8.7105866e-05
 -3.2603409e-06
  7.8077843e-05
  5.2783482e-05
  9.7693846e-02
  4.0350553e-01
 -1.1247927e-02
 -6.8153358e-01
 -7.0255703e-01
  8.5764247e-01
 -9.1164148e-01
 -1.2529298e+00
 -8.3181810e-01
 -7.7713382e-01
  1.1648415e+00
  2.8565767e-01
  1.0285795e+00
 -3.2032424e-01
  1.1558741e+00
 -9.9834479e-02
 -4.1327849e-01
  9.8858017e-01
 -8.8437313e-01
  2.5436502e-02
 -9.2445605e-02
 -5.2614534e-01
 -6.2551069e-01
 -3.1587610e-01
  6.3205031e-03
 -1.4306040e-01
 -2.8405646e-02
 -2.2848627e-01
  1.4619109e-01
  6.9254577e-02
  2.3178802e-01
  1.3173352e-01
 -1.2223463e-01
 -5.7788053e-05
  1.1213697e-01
  1.2831588e-01
  1.6465670e-05
  4.7554979e-05
  4.4621518e-04
 -9.4329502e-04
  9.5393471e-02
  1.1088536e-03
  1.6774831e-05
 -1.2746432e-01
  6.6956371e-02
 -2.4241649e-02
 -8.6482578e-05
 -2.7945840e-01
 -9.1850336e-05
  1.2802053e-04
  2.3852739e-01
 -3.6518724e-04
 -8.7644398e-02
 -1.0932254e-04
  7.6179917e-05
  9.1546739e-05
 -2.7718733e-04
 -8.3181221e-05
  6.5833512e-05
 -3.4926466e-05
 -5.6518288e-04
 -1.7710104e-04
 -9.8465876e-05
 -4.3601415e-01
  4.2635694e-04
 -5.8636848e-05
 -3.2874630e-04
 -1.3269419e-04
  2.9667119e-05
  3.0351200e-04
 -3.0264325e-04
 -1.3431604e-04
  9.1827780e-05
 -6.9112044e-05
 -1.1865068e-04
  1.9985157e-06
 -4.4226665e-05
  3.8896782e-05
 -1.4216633e-04
  5.5251308e-05
 -7.6203462e-05
 -5.1213050e-05
 -1.3247522e-04
 -1.0914191e-04
  9.9242556e-05
  6.7707617e-04
  3.8885064e-05
 -6.1389735e-05
 -2.0483163e-05
 -5.3690903e-05
 -6.1331993e-06
 -4.9054997e-06
 -1.1414132e-04
 -2.5490366e-05
 -2.4467756e-04
  8.2727296e-05
 -4.3030883e-05
  3.4642566e-04
  2.8392484e-05
 -1.5474559e-04
  8.9473338e-05
  2.4767060e-05
  4.3727804e-04
 -6.0164151e-05
 -2.9459730e-04
 -3.4205284e-06
  1.0426111e-04
 -1.1761135e-05
 -1.2337472e-04
 -6.1272556e-05
  7.4806856e-05
 -1.0947449e-04
  6.3706670e-05
 -2.2806193e-05
 -1.9278514e-04
  1.6634411e-04
 -2.0613379e-04
 -1.7267518e-04
 -5.7574442e-05
  1.9327261e-05
  8.0210155e-01
  6.1176169e-01
  7.6590657e-02
  4.1532496e-01
  7.1430546e-01
  1.0054709e+00
  4.3652245e-01
  1.8727334e-01
  1.7547498e-02
  3.9778432e-01
 -2.6028654e-01
  7.8901277e-05
 -5.3239673e-01
 -1.4642215e-01
 -1.4165487e-02
  3.7758988e-01
  3.5276139e-01
 -5.8882642e-01
  9.2236692e-04
 -4.4578319e-06
  4.1917899e-01
  8.5345529e-02
 -1.1938498e-01
  9.2648834e-01
  5.3189903e-01
 -9.2545015e-01
  6.9226790e-04
  2.3288797e-01
 -7.9805218e-02
 -6.2442798e-04
 -1.2323809e-04
 -1.8542242e-04
 -5.1520788e-04
 -1.6954521e-02
 -3.7396774e-05
 -1.0998201e-05
  2.6197475e-04
 -3.5074301e-04
 -1.1457758e-04
 -2.7926681e-05
 -3.1302229e-04
  1.9188245e-05
  1.0559830e-04
 -9.7105054e-05
 -2.1143911e-05
 -5.9033994e-04
 -7.3772055e-05
 -1.8307277e-04
 -3.1096548e-05
 -3.4685923e-05
  1.9086339e-05
  1.7425808e-04
  2.6158479e-05
 -5.1965668e-05
 -3.4709850e-05
 -2.4222404e-04
 -2.1836511e-04
 -8.6221982e-05
 -2.1600180e-04
 -8.6346870e-07
 -1.3092489e-05
 -2.1659693e-05
 -1.3814498e-04
 -1.4538097e-02
  3.4173891e-02
  3.4521356e-02
 -8.8904031e-05
  2.8058059e-05
  2.4381334e-05
  8.7838288e-04
  1.1960177e-04
 -1.7701705e-04
 -1.8310617e-04
 -8.0381179e-01
  2.1230949e-03
 -2.9860251e-04
 -4.8778072e-04
  3.5059380e-05
 -8.7006440e-05
  1.5924154e-05
  1.7689526e-04
  7.1406314e-05
 -2.0589547e-05
 -1.2412853e-05
  1.7186871e-04
  1.2095038e-04
  2.3230930e-05
 -2.4146491e-04
 -1.0888265e-04
 -1.8724520e-05
  1.6258325e-04
  2.2467200e-05
 -6.2273786e-05
  2.5243798e-01
  8.6042804e-01
  1.1552506e-04
  9.3699156e-05
 -2.3926537e-05
 -2.9681265e-04
 -6.2041450e-05
 -5.0725375e-04
 -7.2684998e-05
 -3.1662516e-05
 -2.6276038e-04
 -3.9661027e-04
  7.6548393e-05
 -1.7332497e-05
 -2.4722935e-05
 -3.3167235e-05
 -2.1187336e-05
 -8.6317385e-05
 -5.0745737e-05
 -6.3510779e-05
  1.0442535e-05
  5.2968644e-06
  2.6870519e-04
 -5.1247614e-05
 -7.4721343e-06
 -1.3283570e-05
 -4.8855978e-05
 -1.2473709e-05
 -3.1601598e-05
  1.8160029e-04
 -1.1663155e-04
  2.5578436e-01
 -3.7339344e-04
  1.6176306e-05
  3.0045925e-05
 -3.4764016e-05
 -5.4360896e-07
 -1.0927458e-03
  3.7457474e-05
 -1.9835970e-05
 -1.7525277e-05
 -1.6494298e-04
 -2.3922716e-05
 -2.3624304e-04
 -7.7543838e-05
 -1.2014171e-04
 -4.7615780e-05
 -3.5130428e-04
 -1.3706618e-04
  2.4623281e-04
  1.5448497e-04
 -4.4380579e-04
 -3.9598119e-05
  9.1461370e-06
  4.7672977e-05
  1.2291110e-05
 -7.7680095e-05
  1.5117144e-04
  5.1748859e-05
  1.5596732e-05
  4.7991663e-02
 -1.7506458e-04
 -8.3050902e-05
  2.7314734e-04
  1.3939213e-04
 -2.3093987e-04
  5.5390352e-04
  6.1781553e-05
  7.7105295e-05
  1.0344219e-04
  3.9085589e-04
 -1.2705906e-04
 -8.5131040e-05
  9.6946060e-06
  7.5764011e-04
  1.8001489e-05
  7.7267532e-06
 -8.9138797e-05
  8.2021368e-05
  2.6802930e-01
  3.7293434e-05
  8.9407426e-05
 -3.1001939e-05
  1.2705379e-04
  1.1224783e-04
 -3.2249891e-04
  1.2027882e-05
  1.9521044e-04
  1.8009267e-05
  1.6886087e-06
 -1.6250592e-04
  2.4200999e-05
 -1.8627904e-04
 -1.2672428e-04
 -7.9486072e-06
 -1.9653029e-05
  1.8279260e-04
 -4.6197238e-05
 -1.3133174e-05
  2.5596059e-04
  2.9733756e-05
  7.0029069e-05
 -1.1627541e-04
  7.9555204e-05
  5.8055015e-05
 -3.4642249e-05
 -2.6958584e-04
 -1.0856524e-05
  3.5777045e-04
  6.2334075e-05
  8.0159650e-04
 -1.6182607e-04
 -3.0198309e-04
 -3.8456907e-05
 -1.9039406e-04
  1.2564576e-04
  1.0137541e-04
  1.3966198e-01
  5.5575502e-01
 -2.5204358e-01
  3.0927973e-02
  1.4780083e-01
  4.6358621e-01
 -2.0380712e-01
 -1.6147669e-01
 -2.2407900e-01
 -3.2871429e-02
  6.7712367e-02
  2.2653514e-03
 -1.8412220e-04
 -2.0664723e-01
  1.1764140e-01
 -4.1824533e-04
 -1.5054656e-03
 -2.7140087e-01
 -3.9232713e-03
  6.3596555e-04
  6.2111549e-02
  2.0162717e-05
 -8.7877158e-03
 -9.6489966e-02
 -2.0966149e-04
  2.2044675e-01
 -5.6266587e-04
 -7.2470866e-04
  6.9745940e-05
 -2.7200962e-05
  2.6047515e-04
 -7.5793810e-02
 -5.4794565e-02
 -1.5027516e-01
  2.7025838e-03
 -2.3909561e-01
  2.3080824e-05
  3.7199754e-06
 -5.6172669e-04
  2.0348140e-05
 -4.3572519e-02
  3.4672942e-06
  2.8196568e-04
  1.6205540e-03
 -6.6486839e-04
  9.3647504e-05
 -3.6127043e-05
  1.9514911e-04
 -2.9896801e-05
 -5.3054464e-05
 -1.5059638e-02
 -5.3202115e-05
  1.1785065e-03
 -2.3951732e-04
 -1.4812853e-04
  5.2822480e-04
  7.6682860e-05
  6.8421206e-05
 -1.4603279e-04
 -6.9522262e-05
  2.2812094e-01
 -7.6379092e-06
 -7.9024513e-04
 -1.2413111e-01
  6.2893575e-01
  1.8429069e-03
  4.6946476e-05
  2.4313284e-03
 -4.5124765e-05
 -3.7608621e-05
 -4.4038956e-05
 -7.5433323e-05
  7.3344047e-05
  6.2599713e-05
 -4.1344060e-04
  3.7554716e-04
 -3.4098397e-04
 -1.0540191e-05
 -1.2994029e-04
  1.0688307e-04
  9.7433766e-03
  3.9781098e-05
  2.3061835e-05
 -8.2003658e-05
  3.1006959e-05
  4.3811612e-03
 -4.5380668e-05
  4.1771890e-04
 -6.1403393e-06
 -3.3812590e-05
  3.0390510e-01
  1.0224140e-01
  3.0436829e-01
  1.0891511e-01
  3.4317985e-01
  5.3040922e-02
 -1.6089426e-01
 -1.5845303e-04
 -2.0120960e-01
 -9.7556181e-02
  4.9247090e-02
  2.1197921e-02
 -3.7268287e-06
 -4.2938702e-02
  2.4173425e-01
 -1.6705690e-01
 -1.7744409e-04
 -1.6236220e-01
 -7.8528465e-06
 -1.4678463e-04
 -2.1999248e-03
  4.6660821e-06
 -2.2215863e-01
 -2.1639767e-01
  4.3534343e-05
 -1.7469071e-04
 -6.0050555e-05
 -7.9741329e-02
  3.7337169e-05
 -2.5178175e-05
 -3.8887210e-05
  3.4697518e-05
  5.2544881e-05
 -1.8105098e-05
 -1.1782944e-04
 -1.6958636e-04
  6.4852313e-05
 -7.2699098e-05
 -1.4681314e-04
 -4.7913854e-05
  1.0603064e-04
  6.8091881e-04
 -1.3153252e-05
  3.2073243e-05
 -9.6572396e-05
 -4.5364755e-05
 -1.3453962e-04
  1.1074440e-04
 -1.0402799e-04
 -6.4732994e-05
  8.1716455e-05
 -6.8459981e-06
  8.1449507e-05
 -3.2088577e-04
 -3.7115402e-05
  9.3221111e-05
  3.8996877e-05
  1.3134234e-04
 -6.1989739e-04
  5.6615580e-05
 -2.8564826e-02
  5.1840139e-05
  4.1964598e-02
  1.9425267e-02
 -3.5461552e-02
 -2.9294161e-02
 -2.9242821e-02
  2.0980943e-04
 -5.4068503e-05
  7.4912049e-04
 -1.5786063e-03
 -6.7726610e-04
  3.9393347e-04
  5.9981517e-02
 -8.6581461e-02
  1.3677632e-03
  1.2814408e-04
  3.3320427e-02
  1.5923426e-05
 -1.3895721e-04
 -3.3296034e-02
  4.6507306e-05
  1.0807597e-01
 -7.8542298e-03
  1.1383883e-04
  3.1333385e-04
  8.8844674e-05
  2.4235265e-04
 -4.4380799e-03
 -2.9865694e-05
 -4.8065516e-01
 -2.4280592e-04
  3.9109439e-01
 -2.5008053e-01
 -5.4667544e-01
  5.8808565e-02
 -3.2426109e-05
 -2.1952400e-01
  2.0622812e-02
 -3.3020199e-04
  1.8026104e-02
  3.4960013e-04
 -4.7598924e-02
  3.4709959e-05
  1.9697566e-01
 -1.1447857e-02
  1.5645950e-04
 -3.4168592e-05
 -1.5626315e-04
 -8.7088119e-05
 -1.9660595e-04
 -3.7957792e-04
 -1.3954916e-04
 -7.1243318e-05
  5.3959091e-05
 -1.4740859e-01
 -3.0268391e-04
 -7.9798524e-04
  8.4796729e-06
  1.2447770e-03
 -3.1866651e-04
 -8.0355283e-05
  1.5565538e-04
  9.6411371e-05
  4.2669280e-03
 -2.4353137e-04
  8.4603444e-06
 -7.8773446e-05
  3.7962498e-04
  1.0318369e-04
  1.4350638e-04
 -3.3666209e-05
 -1.1110156e-04
 -3.2859013e-04
  2.7027045e-04
 -1.2016490e-01
 -2.5066943e-04
  8.3152423e-05
 -5.4966740e-06
  1.5201137e-04
 -6.7920220e-05
  9.8826553e-05
 -8.2318438e-05
 -8.7184908e-06
 -6.0300781e-06
 -6.3950802e-06
 -1.4609510e-04
 -1.0507848e-04
 -1.3655176e-05
 -3.9300605e-04
  7.6758403e-01
  6.3734613e-03
  7.4546210e-02
  2.1963475e-04
  1.4359931e-03
 -1.6612954e-04
  1.3859139e-04
  8.8362816e-05
  2.8574537e-04
 -2.2564043e-01
 -6.4306631e-04
  1.0388157e+00
 -1.3004871e-01
  3.5256593e-04
 -2.6020422e-04
  6.0870707e-01
  3.0624382e-05
 -1.0931442e-04
 -2.3519744e-04
  2.0150375e-05
 -3.0786105e-05
  2.7910960e-04
 -3.3099446e-01
  1.6915009e-04
 -1.1166640e-01
 -1.3206132e-01
 -2.1328578e-04
  3.6283869e-05
  1.7482400e-01
 -7.6101343e-05
 -1.7858967e-01
 -8.0908352e-01
  2.5952756e-01
 -2.0674004e-01
  1.4129248e-01
 -7.9394579e-02
  6.5911746e-01
  4.0469575e-05
 -2.3648032e-07
  1.6576323e-01
 -1.7713727e-02
 -3.7397438e-01
 -1.4869949e-01
  4.1809358e-02
 -4.9985472e-05
  2.7854988e-01
 -6.9688261e-04
 -6.2805615e-02
  2.3075935e-01
  1.0063130e-01
  3.5764772e-02
  2.8090300e-03
 -1.5318967e-01
  1.1955278e-01
  5.6332570e-01
 -1.9828819e-01
 -8.0577126e-07
  1.5971281e-01
 -3.9467186e-01
 -1.2896498e-03
  2.0643792e+00
 -1.0653293e-01
 -5.7112452e-02
 -5.8473431e-02
 -3.9177091e-04
  4.3520317e-03
  2.0172599e-01
 -1.5377611e-02
 -1.2945747e-01
  9.3777829e-01
 -6.9266636e-05
  5.5496919e-04
  2.8432155e-02
  2.0262210e-03
  4.2791089e-05
  1.2526214e-04
 -4.0861282e-01
 -1.1042587e-01
  8.2400030e-01
  1.6187358e-04
 -1.0158955e-01
 -6.2352110e-02
 -1.0383930e-01
 -4.8484036e-04
  2.4044257e-01
  5.5111080e-02
  2.8455439e-01
 -8.8183574e-02
 -3.9702502e-01
 -7.4885023e-04
 -9.1455185e-01
 -7.7639997e-02
  3.5938904e-02
 -7.5067091e-01
  1.0090413e+00
 -3.5610864e-01
 -5.8636991e-03
 -6.0079634e-05
  2.5599686e-02
  1.2114188e-01
  3.4640670e-01
 -3.2141592e-02
 -8.4737524e-02
 -7.3467517e-01
 -7.9380393e-01
  2.4640208e-02
 -3.0759850e-03
 -1.7124356e-01
 -9.0971880e-04
 -4.4984780e-02
  1.8416867e-01
 -3.0866456e-01
  1.7562447e-01
 -1.2275141e-04
 -1.4850487e+00
 -2.0871976e-01
 -1.5283887e-04
  3.4522522e-02
 -2.6262918e-01
 -1.3925310e-04
 -2.8692329e-01
 -4.6380225e-01
  5.7015564e-02
 -4.1280550e-01
 -7.2582889e-01
 -2.3874629e-03
  3.4240314e-01
  7.5878650e-02
  4.8958504e-04
 -1.7973192e-01
 -9.2808676e-01
  2.3581231e-01
  6.0506649e-02
  1.3199046e-01
  9.3232810e-02
 -6.2102842e-01
  3.9406127e-01
  8.2619868e-02
 -2.4988861e-01
 -1.3976207e+00
 -1.5263544e-01
  8.2549620e-01
  1.4880669e+00
 -3.7299596e-02
 -6.7300326e-01
  1.7841703e-01
 -5.1025054e-03
 -5.5413640e-01
  1.0880244e-01
  1.3294146e+00
 -4.6996206e-02
  9.9894010e-02
  1.6446643e-02
  2.7528009e-01
 -1.2147398e-04
 -1.5546608e-05
  4.6790619e-03
 -4.6102545e-01
 -3.6104312e-04
  1.8901058e-03
 -9.1108733e-01
 -3.4529275e-01
  7.5155854e-01
  2.9961476e-01
  6.7532528e-06
 -3.2843235e-01
  5.0154412e-01
  2.8173137e-01
  3.4760034e-01
 -3.6094716e-01
  1.1102059e-01
 -5.2733916e-01
  1.2986443e-02
 -1.9467323e-01
  7.2817332e-01
  6.3884187e-01
 -3.5095826e-01
 -4.6824571e-01
  6.3695395e-01
  6.8000668e-01
  2.0755039e-01
 -1.4849132e-02
  1.1354405e-01
 -2.9747948e-02
  1.0728759e+00
  9.5051073e-04
  6.1501998e-01
 -6.7788285e-01
 -8.4022588e-01
  1.6055452e-02
 -1.6775568e-01
 -1.8204957e-01
 -1.0987550e-01
  2.4394262e-01
 -1.1324566e-01
 -7.8374606e-01
  6.9650888e-01
 -4.2949658e-02
  1.5237644e-01
 -3.8368188e-02
  4.1732551e-03
 -9.0748495e-01
 -1.6820453e-02
  5.5757765e-02
 -7.6177120e-01
  1.6984502e+00
  1.8676911e-01
 -1.2851305e+00
  3.3589259e-01
 -2.7676779e-04
  8.0384091e-03
 -1.5121501e-02
  3.4189489e-01
 -1.0975777e-01
  1.4557537e+00
 -2.1319985e-02
 -1.0547436e+00
  1.8952586e-02
 -1.4355180e-01
 -1.6231638e-01
 -1.0722789e+00
 -7.3871577e-01
 -6.2897646e-01
 -2.2609074e-01
  3.0893494e-05
 -4.9446297e-01
 -1.2124622e-04
 -5.0309904e-05
  4.0706698e-04
  5.5112827e-01
 -2.3122791e-06
  1.1380158e-01
  1.1026370e-03
 -2.3005382e-04
 -1.5720911e-05
 -9.9217890e-05
 -5.5944627e-05
 -1.4221456e-04
  1.2100783e-04
  6.2527739e-05
  4.7950070e-05
 -6.8475515e-02
 -8.3690829e-05
 -6.1617797e-04
  5.1065916e-05
 -1.0348579e-04
 -9.6805437e-05
  5.0214810e-05
  3.2788541e-04
 -1.1331797e-01
  2.0041707e-01
 -4.1627591e-05
 -2.3159578e-01
 -5.7813380e-05
  3.4895059e-04
  4.6891371e-05
  6.3036096e-01
  2.7279210e-01
  3.0983594e-01
  7.2862906e-04
 -1.4374681e-03
 -8.8559573e-06
  1.5497111e-06
  1.1222548e-04
 -1.4932077e-04
  6.3185520e-02
  4.6699867e-02
  7.1109062e-01
 -3.4909233e-02
  1.6862576e-01
  1.1626841e-05
  1.1168681e-04
  2.0955194e-06
 -2.9943939e-04
  7.7519086e-05
 -1.1634017e-04
 -8.8215697e-01
 -3.7501284e-04
 -2.4519599e-04
 -2.2310217e-01
 -1.6152403e-04
 -2.6779415e-05
  2.1634760e-04
  8.2558923e-05
  1.3568707e-05
  2.2346474e-02
  7.8814611e-02
 -5.5048044e-06
 -2.0491105e-01
 -5.0496925e-05
  6.8393274e-05
 -1.2109616e-04
  4.1428128e-01
  1.6443470e-02
 -5.0828781e-02
 -5.3584073e-02
  4.0568082e-04
  6.5903074e-01
 -7.8882003e-05
 -2.9663072e-04
 -2.5549190e-05
  3.9293048e-01
 -1.5410207e-02
 -5.7901889e-01
 -2.6573336e-01
 -4.4099244e-04
 -2.4798898e-01
  6.8737252e-05
 -5.1848652e-05
 -1.4686846e-04
  1.4049783e+00
 -7.0349082e-02
 -5.5020303e-03
 -2.4238989e-05
  5.3492456e-04
  1.4940869e-04
  1.2434149e-06
 -2.3186940e-04
  1.9198824e-05
  2.3318967e-01
  2.1133756e-05
  4.9540084e-02
  9.7508011e-05
 -2.6199636e-05
 -1.0650128e-04
 -8.7398497e-05
  6.1903486e-04
 -5.0751795e-04
 -3.2250386e-01
  1.1117788e-01
  1.6761550e+00
 -2.0097799e-03
  6.1378298e-05
 -9.8121827e-03
 -1.5218359e-02
 -1.0146158e-04
 -2.5674479e-05
 -8.5878050e-01
 -3.6266111e-02
 -5.7785714e-01
 -1.2679548e-03
  9.3364879e-06
 -2.7182892e-02
 -3.5308782e-04
  1.1350753e-04
 -5.6100562e-05
  6.7192036e-01
 -2.8786969e-01
  1.5373784e+00
 -1.8814929e-04
 -2.9287007e-04
  1.5743171e-05
 -4.3707473e-06
 -3.7217935e-05
 -1.2302052e-04
 -4.9532965e-01
 -5.0414823e-05
  3.3839738e-01
 -2.6623183e-04
 -6.3260226e-04
  1.4360495e-05
 -1.7632154e-05
  7.0622387e-05
  7.6773258e-06
 -3.9358266e-02
 -5.3384876e-05
 -2.1691658e-01
 -3.0122495e-03
 -8.7766034e-07
 -5.8493696e-02
 -9.2866983e-05
 -1.2692620e-05
 -1.3515833e-04
  5.8842933e-01
 -4.3698847e-02
  1.1396725e+00
  7.9220641e-05
 -1.1192178e-04
 -2.3420952e-01
 -2.3313140e-04
 -5.8031525e-05
 -6.7710200e-05
  1.2626402e+00
  1.8860438e-01
 -3.0395113e-02
 -7.0679951e-01
 -1.5555315e-04
  7.9723310e-01
  4.5625573e-01
  4.5578501e-05
  3.8273707e-01
 -6.0309660e-01
 -1.1516410e+00
  6.9283003e-01
  6.8634115e-02
  8.4857823e-04
 -3.1584423e-02
 -3.1858573e-05
  1.8649996e-05
 -1.5359139e-04
 -5.6463832e-01
 -2.2198340e-01
  1.6119875e-02
 -4.2335057e-01
 -1.8664638e-02
 -1.9569058e-04
  6.9837712e-05
  1.4480271e-05
  2.6175609e-02
 -3.8442067e-05
  3.7893376e-01
  4.2891893e-01
  4.0386075e-01
 -1.4003466e-01
 -3.8402277e-01
  5.1327021e-04
 -3.6730996e-04
  9.1378942e-02
 -1.6228501e+00
  3.7944089e-03
  1.3402258e-01
  8.4701382e-02
  1.3062432e-01
  3.7305486e-01
  1.5095323e-01
 -9.3652870e-06
  5.1008153e-04
 -1.4540241e+00
 -2.7276903e-01
 -1.4813180e-01
 -1.1654954e-01
 -3.6222767e-04
  2.2023925e-01
 -1.8940010e+00
  3.7766210e-04
  2.1765082e-01
  4.3547533e-02
  4.6881771e-01
 -4.5760810e-01
 -1.8697816e-01
 -2.4720592e-02
  3.2439921e-02
  2.4289515e-05
  1.4500567e-06
 -3.7040442e-02
 -1.8643397e+00
 -4.6867326e-01
  8.3552140e-01
 -9.8169602e-02
  1.3603221e-01
 -1.3434482e-01
  2.6263073e-01
  2.8510049e-05
  1.3345518e-05
 -2.8900367e-01
 -1.3598091e-04
 -2.3160687e-01
 -4.1302612e-01
  5.6863770e-02
  9.9590801e-02
  7.4777696e-03
 -1.7093570e-04
  1.4400381e-01
  5.8748764e-01
 -9.7803336e-01
 -4.4404632e-01
  3.7600490e-04
  9.3565090e-05
  6.8028316e-06
 -6.3924164e-01
 -2.4998980e-04
 -6.4870763e-01
  6.8301961e-02
 -4.3221045e-01
  5.0197458e-01
 -2.2713750e-05
 -5.4548850e-04
 -2.1112353e-05
 -2.7278597e-07
 -2.2296907e-05
  4.2201882e-05
  4.7085578e-06
  1.4973271e-05
  1.2898104e-01
 -1.9009171e-04
 -1.1334058e-04
  6.0372043e-04
 -5.4150534e-01
 -1.5612290e-04
 -8.3395523e-01
 -4.4508513e-05
 -6.1714876e-01
  1.6951288e+00
 -8.7272419e-06
  3.1022172e-04
  1.1101021e-04
 -1.8544311e-02
  4.1732961e-05
 -4.9873334e-01
  5.1714545e-03
  1.3593593e-01
  3.7333786e-01
  7.3675299e-04
 -7.5486976e-05
 -2.2410213e-05
 -4.2619878e-01
  3.0477726e-05
 -2.4584843e-01
 -8.0442609e-05
 -2.7955788e-01
  4.0708601e-02
 -2.2894540e-04
 -7.2218751e-04
 -1.9288738e-04
 -9.0085991e-02
  1.6012858e-04
 -1.0847315e+00
  2.8320827e-02
 -5.7884717e-01
  2.4360614e+00
  1.6062078e-05
 -2.3263397e-05
 -8.5478846e-04
 -3.1447682e-01
 -5.7292575e-05
 -2.9027280e-01
  3.4644839e-03
  1.1270459e+00
 -6.5472311e-01
  1.4588644e-04
  7.2582930e-05
 -1.5576760e-04
 -2.5526693e-01
 -5.8148133e-05
 -2.8465471e-01
  1.0073561e-03
 -8.6634171e-01
  1.1318346e+00
  1.6507563e-04
 -1.0777711e-04
 -1.7616061e-04
 -3.1545684e-02
 -4.9494887e-05
  6.0571735e-03
 -7.7684017e-06
 -4.7236189e-01
  3.9025295e-01
  1.2641233e-05
  1.9966565e-04
 -5.3340156e-04
 -5.4947710e-01
  3.6545749e-05
 -2.4153139e-02
 -1.7064356e+00
 -9.0798706e-02
 -1.3938923e-01
 -2.8800219e-04
 -2.3306372e-04
  2.1075773e-04
 -6.8192800e-05
 -3.8265225e-05
  9.8360598e-02
 -3.2462023e-05
 -3.9940976e-04
 -3.4979546e-01
  5.6613342e-05
 -4.6189925e-05
 -1.8410534e-05
 -3.8000852e-01
  1.4496758e-04
  1.3755927e-04
 -1.1880196e-01
 -3.7038142e-05
  3.0455613e-01
 -1.7478997e-04
 -7.4689236e-04
  1.2929623e-04
 -2.3565763e-01
  4.1876538e-05
  7.6301682e-01
 -5.2547999e-02
 -9.4040394e-01
 -1.9253359e+00
 -5.4975375e-05
 -8.3894200e-05
  1.3432917e-04
 -3.0091988e-02
  3.1266575e-06
  2.6733062e-01
 -5.1733849e-05
 -1.7696568e-04
  2.4540004e-01
  4.0405470e-05
  1.8297412e-04
  4.5961238e-04
 -3.6546376e-01
  1.2180254e-04
 -3.8487334e-02
 -3.8628361e-01
  1.4651239e-01
 -1.0137188e+00
 -2.1726135e-03
  2.2114706e-04
  1.7257723e-04
 -1.2962520e-01
  1.8506431e-05
  1.0916628e+00
 -1.7663989e-04
 -1.7994393e-01
 -2.9001784e-01
 -8.9995090e-05
 -5.0891972e-06
 -1.9150649e-04
 -2.1699511e-01
  6.6256085e-05
  3.2416114e-01
 -2.6520136e-01
  2.8904038e-05
  1.8426271e-01
  7.1284318e-05
  1.8979366e-05
 -2.7706947e-05
 -1.8846454e-01
 -2.7237582e-04
 -4.1271296e-01
  2.1251377e-03
 -1.0213116e-03
  9.2368871e-01
  3.7773961e-04
  1.3454844e+00
 -2.9735791e-04
 -3.8784521e-05
 -5.2830095e-05
  2.0016406e-01
  2.0384190e-05
  2.9920256e-01
 -9.5811290e-01
  1.6500440e-04
  2.9473520e-05
 -1.3558181e-04
  1.7749684e-05
  1.4327990e-04
  1.0335477e-04
 -1.3660757e-04
  1.5245758e-04
  8.6457709e-05
 -3.6895939e-04
  4.9419063e-01
 -1.5765300e-03
 -4.8414069e-05
  4.0011353e-05
  2.6773330e-02
  4.5529312e-01
  8.0486876e-01
 -3.0857027e-01
  1.6871923e-04
  4.2569092e-01
  3.2359589e-05
  4.1664534e-05
  1.5745961e-04
  3.4412518e-01
 -9.2879809e-02
  3.8793448e-01
  1.2733277e+00
 -2.9069835e-05
  1.8402365e-04
 -1.0355682e-04
 -3.0062278e-04
  7.4818570e-05
 -3.0229925e-04
  6.2210298e-01
  1.5940558e-04
 -2.1570255e-01
 -2.0262025e-05
  1.5089945e-01
 -3.4386154e-05
  2.3151930e-02
 -3.3926342e-05
  1.8905023e-01
 -4.9325648e-01
  1.7660259e+00
 -6.4876735e-02
 -4.0017650e-05
  5.8831699e-02
  2.9659255e-05
 -1.6310946e-04
 -3.5908676e-04
  2.2254527e-01
  6.1876410e-01
  2.6928356e-01
  5.0751656e-01
  3.1661544e-05
  4.5127892e-01
 -3.5216630e-04
  1.1812881e-02
  9.8662982e-05
 -5.3548101e-02
 -3.5192430e-01
  3.9449075e-01
 -1.9984800e+00
  1.4093371e-05
  7.0821035e-01
 -2.2744924e-04
  1.2142984e-04
  4.2747538e-06
  5.7893002e-01
  2.3706977e-01
  1.2112747e-01
  6.7489004e-01
  1.0335411e-05
  3.5797237e-04
 -1.1216299e-04
 -1.1061291e-05
  1.3520221e-04
  7.9621315e-02
  9.8976612e-01
 -7.9011577e-01
  2.0924886e-01
  1.1221166e-04
 -1.3671381e-05
 -3.4828394e-04
 -8.2555060e-05
  1.0394034e-04
 -1.1133595e-04
 -8.6716289e-05
 -3.0193029e-05
  5.7904224e-05
  1.6671178e-06
  1.4986040e-04
  8.7393324e-05
  1.2578788e-04
  1.0136455e-04
 -1.1605355e-01
  4.6162820e-01
 -2.1085866e-01
 -5.0944096e-01
  2.0025902e-04
 -3.7033315e-04
  1.3589929e-04
  1.5560187e-04
  2.3447767e-04
  4.0381855e-01
  1.2623595e-01
  4.6472290e-01
  1.1919641e-01
  6.0530514e-05
 -3.9529124e-05
 -1.3843571e-05
  1.2340932e-04
  3.2229920e-05
  5.4279251e-05
  3.5417704e-03
 -3.0975848e-01
 -5.3248007e-04
 -1.0977144e-04
  1.6295679e-04
  6.0202285e-05
 -6.0636768e-05
  3.0965410e-05
 -6.7289972e-01
  3.9399913e-01
 -4.4935434e-03
  5.3636092e-01
 -3.5373792e-05
  8.2831764e-05
 -1.5253450e-04
 -2.1346992e-05
  2.4283456e-04
  5.0445610e-01
  5.8467775e-03
 -1.5646014e+00
  3.2537718e+00
  6.8232701e-05
  3.1166626e-04
 -7.4019248e-05
  6.2650433e-05
  3.7387897e-05
 -2.6483971e-01
  3.6170679e-01
 -1.2150148e+00
 -1.7340325e-01
  1.1264534e-04
 -8.1095316e-02
 -6.7519301e-05
  2.0498765e-04
  9.9404715e-05
 -1.0498837e-01
  3.5253295e-01
  6.7001387e-02
 -4.6692890e-01
  1.2541170e+00
  1.6564300e-02
 -1.3607004e+00
  1.6371485e-04
 -2.3527601e-04
 -1.1386019e-04
  3.5808834e-01
 -4.4940493e-01
  7.1277517e-01
 -2.3826813e-06
  3.1454017e-04
  1.3660731e-04
 -2.1604703e-04
 -4.7048935e-04
  2.7081178e-05
 -4.4947337e-05
 -5.4441003e-05
 -3.3344582e-05
  8.7533218e-01
  3.6418950e-04
 -6.2806314e-01
  2.1966438e-05
 -6.2567461e-04
 -4.3010741e-04
  6.4886916e-01
 -1.7665404e-01
 -3.3277521e-01
 -5.6356126e-01
  1.8716631e-03
 -8.6316198e-01
  2.7314345e-05
 -1.6350966e-04
 -2.8628914e-04
 -1.8447976e-01
 -1.5706812e-01
  7.1914997e-03
  4.4634485e-01
 -1.6160393e-05
  2.3571803e-01
  8.0795733e-05
  5.5556950e-05
 -4.2608859e-05
  1.1621920e+00
 -2.0467980e-04
 -3.5296351e-01
  5.7236034e-01
  9.3929030e-02
 -2.7738771e-01
  2.0539203e-05
 -5.6519726e-05
 -1.3813665e-04
 -9.7362447e-01
 -4.8429289e-01
 -1.3027693e-01
  2.3891231e-01
  5.6048586e-05
 -2.4207768e-01
  1.2492971e-04
  8.6817832e-05
 -5.0029503e-06
  1.1276584e+00
 -1.4666379e-04
  1.5701796e+00
  3.1439006e-01
  1.6609025e-04
 -4.8567036e-01
 -1.5975894e-04
  2.1377197e-04
  5.3888885e-05
 -1.4254293e-01
 -1.7598811e-01
 -7.3274922e-01
  5.6669098e-01
  1.8354873e-04
 -8.0172634e-01
  6.6774541e-05
  4.1603547e-04
 -7.3036072e-06
  4.1267347e-01
 -3.6330882e-02
 -8.5376445e-03
  1.2646672e-01
  1.2646672e-01
  1.2646672e-01
  1.2646672e-01
  1.2646672e-01
  2.8080466e-01
  2.8080466e-01
  2.8080466e-01
  2.8080466e-01
  2.8080466e-01
  2.1807057e-01
  2.1807057e-01
  2.1807057e-01
  2.1807057e-01
  2.1807057e-01
  2.1253558e-01
  2.1253558e-01
  2.1253558e-01
  2.1253558e-01
  2.1253558e-01
  1.5499739e-01
  1.5499739e-01
  1.5499739e-01
  1.5499739e-01
  1.5499739e-01
  3.4738839e-01
  3.4738839e-01
  3.4738839e-01
  3.4738839e-01
  3.4738839e-01
